<?xml version="1.0"?>
<opencv_storage>
<stage6>
  <maxWeakCount>8</maxWeakCount>
  <stageThreshold>-1.9644896984100342e+00</stageThreshold>
  <weakClassifiers>
    <_>
      <internalNodes>
        0 -1 107248 8.5708409547805786e-02</internalNodes>
      <leafValues>
        -8.6944997310638428e-01 1.3106796145439148e-01</leafValues></_>
    <_>
      <internalNodes>
        0 -1 59320 -5.2641265094280243e-02</internalNodes>
      <leafValues>
        -8.5209333896636963e-01 1.1118473857641220e-01</leafValues></_>
    <_>
      <internalNodes>
        0 -1 2688 -5.1199769973754883e-01</internalNodes>
      <leafValues>
        2.9652830958366394e-01 -7.4735003709793091e-01</leafValues></_>
    <_>
      <internalNodes>
        0 -1 61133 -2.5092864036560059e-01</internalNodes>
      <leafValues>
        -8.7392532825469971e-01 3.4860536456108093e-01</leafValues></_>
    <_>
      <internalNodes>
        0 -1 143295 -1.8221372738480568e-03</internalNodes>
      <leafValues>
        2.6611816883087158e-01 -8.2614850997924805e-01</leafValues></_>
    <_>
      <internalNodes>
        0 -1 25568 1.7101051285862923e-02</internalNodes>
      <leafValues>
        -6.9449883699417114e-01 3.7547093629837036e-01</leafValues></_>
    <_>
      <internalNodes>
        0 -1 140001 -1.7343459185212851e-03</internalNodes>
      <leafValues>
        -4.0053898096084595e-01 4.8842760920524597e-01</leafValues></_>
    <_>
      <internalNodes>
        0 -1 28798 -2.2669252008199692e-02</internalNodes>
      <leafValues>
        2.9184100031852722e-01 -8.9168024063110352e-01</leafValues></_></weakClassifiers></stage6>
</opencv_storage>
