<?xml version="1.0"?>
<opencv_storage>
<stage15>
  <maxWeakCount>13</maxWeakCount>
  <stageThreshold>-2.3231818675994873e+00</stageThreshold>
  <weakClassifiers>
    <_>
      <internalNodes>
        0 -1 102321 6.1522880569100380e-03</internalNodes>
      <leafValues>
        -8.0856883525848389e-01 6.5467625856399536e-01</leafValues></_>
    <_>
      <internalNodes>
        0 -1 69381 -3.3673726022243500e-02</internalNodes>
      <leafValues>
        -5.7767790555953979e-01 2.1707227826118469e-01</leafValues></_>
    <_>
      <internalNodes>
        0 -1 121166 -1.8942439928650856e-03</internalNodes>
      <leafValues>
        -7.4830526113510132e-01 1.8293547630310059e-01</leafValues></_>
    <_>
      <internalNodes>
        0 -1 3660 -5.0158333778381348e-01</internalNodes>
      <leafValues>
        2.3797146975994110e-01 -6.6535693407058716e-01</leafValues></_>
    <_>
      <internalNodes>
        0 -1 122415 -3.3295382745563984e-03</internalNodes>
      <leafValues>
        -3.7201550602912903e-01 5.2851366996765137e-01</leafValues></_>
    <_>
      <internalNodes>
        0 -1 37809 5.7239225134253502e-04</internalNodes>
      <leafValues>
        -3.6139345169067383e-01 4.9416750669479370e-01</leafValues></_>
    <_>
      <internalNodes>
        0 -1 156857 3.6199158057570457e-03</internalNodes>
      <leafValues>
        -4.1634526848793030e-01 3.8688609004020691e-01</leafValues></_>
    <_>
      <internalNodes>
        0 -1 44924 -1.1778962612152100e-01</internalNodes>
      <leafValues>
        2.2147633135318756e-01 -8.3433544635772705e-01</leafValues></_>
    <_>
      <internalNodes>
        0 -1 156544 -2.5455740978941321e-04</internalNodes>
      <leafValues>
        5.6351947784423828e-01 -2.9322040081024170e-01</leafValues></_>
    <_>
      <internalNodes>
        0 -1 118888 7.3824496939778328e-03</internalNodes>
      <leafValues>
        -7.0170772075653076e-01 2.1715514361858368e-01</leafValues></_>
    <_>
      <internalNodes>
        0 -1 137897 -3.1354781240224838e-03</internalNodes>
      <leafValues>
        8.0406230688095093e-01 -2.3033756017684937e-01</leafValues></_>
    <_>
      <internalNodes>
        0 -1 127852 1.4779717894271016e-03</internalNodes>
      <leafValues>
        1.7614389955997467e-01 -9.5189958810806274e-01</leafValues></_>
    <_>
      <internalNodes>
        0 -1 112534 9.5057033468037844e-04</internalNodes>
      <leafValues>
        -2.6859375834465027e-01 7.4021899700164795e-01</leafValues></_></weakClassifiers></stage15>
</opencv_storage>
