<?xml version="1.0"?>
<opencv_storage>
<stage11>
  <maxWeakCount>9</maxWeakCount>
  <stageThreshold>-1.9696273803710938e+00</stageThreshold>
  <weakClassifiers>
    <_>
      <internalNodes>
        0 -1 79534 1.9026167690753937e-02</internalNodes>
      <leafValues>
        -8.8742429018020630e-01 -1.2680578231811523e-01</leafValues></_>
    <_>
      <internalNodes>
        0 -1 37261 -3.7286910228431225e-03</internalNodes>
      <leafValues>
        4.3742710351943970e-01 -5.9143328666687012e-01</leafValues></_>
    <_>
      <internalNodes>
        0 -1 10078 -4.8738075420260429e-03</internalNodes>
      <leafValues>
        3.2465010881423950e-01 -6.7111796140670776e-01</leafValues></_>
    <_>
      <internalNodes>
        0 -1 128951 -1.4567268081009388e-03</internalNodes>
      <leafValues>
        -3.7718865275382996e-01 5.2231436967849731e-01</leafValues></_>
    <_>
      <internalNodes>
        0 -1 79653 -1.6510867862962186e-04</internalNodes>
      <leafValues>
        3.2658493518829346e-01 -5.4644060134887695e-01</leafValues></_>
    <_>
      <internalNodes>
        0 -1 20229 -1.6877677291631699e-02</internalNodes>
      <leafValues>
        2.2928686439990997e-01 -8.6274164915084839e-01</leafValues></_>
    <_>
      <internalNodes>
        0 -1 149696 -5.4330386221408844e-02</internalNodes>
      <leafValues>
        1.7815460264682770e-01 -9.0553724765777588e-01</leafValues></_>
    <_>
      <internalNodes>
        0 -1 148761 -2.5667898356914520e-02</internalNodes>
      <leafValues>
        6.7615103721618652e-01 -2.8935724496841431e-01</leafValues></_>
    <_>
      <internalNodes>
        0 -1 151878 -1.9558859057724476e-03</internalNodes>
      <leafValues>
        -7.8092616796493530e-01 2.2527463734149933e-01</leafValues></_></weakClassifiers></stage11>
</opencv_storage>
